-1.527734868298864512e-01
-1.526875695421955059e-01
-1.526339221346535990e-01
-1.527734095070574505e-01
4.025746023021736231e-01
-9.785349796836723124e-02
-9.826758250771974734e-02
-9.742520735529154596e-02
-1.470956851995520176e-01
3.529550921384181361e-01
-1.470195558081976994e-01
-1.470955657943888439e-01
-1.130352601710441496e-01
-1.114803728322145415e-01
8.900161259788642587e-01
-1.130371041833699297e-01
-7.466565425582642745e-02
8.758438853164325633e-02
6.234573091829426206e-02
-7.510172009289896311e-02
1.080506171778480434e-01
-2.255634949406563894e-01
-5.890271900991041198e-02
-5.929060187027378886e-02
-6.628892638628737510e-02
1.007664378960533291e-01
-2.325666645654131670e-01
-2.322410467150117230e-01
-6.223184839598219081e-02
6.048070603223582031e-01
-2.285264595987873126e-01
-2.282205912001444015e-01
-5.595343203958125233e-02
-5.623935335674527108e-02
-5.624516787590073952e-02
-5.663514132781342914e-02
-1.113324072829887379e-01
4.151759242119748006e-01
-8.505009974574506693e-02
-2.186606173067360270e-01
