4.025694195324723834e-01
-8.942750592870371551e-02
-8.218332894780151776e-02
-9.838921033862778331e-02
1.297016096586746381e-01
5.947754607905241242e-01
-1.909463216547711284e-01
-7.983125266365323491e-02
6.677881662733407830e-02
5.699849572418947963e-01
7.294188155097622306e-02
3.996937727540863516e-01
-4.298028292203106421e-02
-4.085466097157154641e-02
4.613873296302979377e-01
-4.301315066491896710e-02
3.753051489968352583e-01
3.748950389925665982e-01
2.078537197526577063e-01
4.194671252869715955e-02
2.044332157404755990e-01
-1.372796397774305177e-01
1.347283519179205517e-02
3.035136399953670266e-02
2.089284324932583481e-01
3.642886253292737520e-01
7.911536399603142505e-03
3.278799399156163280e-02
1.950701951894906749e-01
8.569654640479631436e-01
1.498004130805253610e-02
2.351884661337663718e-02
2.475810321973132347e-02
1.397165525216380669e-02
-1.602967564102343936e-02
1.352790159267157517e-02
1.720671526154527176e-01
6.696090872471832656e-01
1.554071541672584766e-01
2.916995416634719264e-03
