-3.294747811170565177e-04
-4.171154450954339866e-05
2.056408584064456596e-04
-3.404864216173371589e-04
2.084274332396381935e-01
3.333343905340122038e-01
-4.174454405288149927e-02
7.231753015336653875e-05
1.670240292411206973e-01
6.665824998920761857e-01
1.661990547406611840e-01
3.298203099615105429e-04
-2.701537431828286186e-04
-3.070313101091621264e-04
-3.438748236045519979e-04
-2.707933047473125841e-04
1.666470833755853143e-01
6.666674518006765471e-01
1.666888415965993575e-01
-3.247936677601397014e-06
1.666877805106093402e-01
-1.668609217967169933e-01
-9.741486646854052519e-05
1.903375855556304767e-05
1.667075219206560766e-01
3.332010434122184561e-01
7.902249046709538063e-05
3.787709767041497888e-05
1.666706915499024944e-01
8.332506414115941062e-01
1.964531744667025572e-04
7.898826126690725708e-07
-1.793059600459681710e-05
-2.855211448068720523e-05
-4.019982178987424750e-05
-1.791989360454102984e-05
1.666670078315628523e-01
6.666727650994223042e-01
1.666536608964809263e-01
6.413758953679450841e-06
