-1.023332014226938369e-01
-1.066699716823281546e-01
-1.095582557771345444e-01
-1.023634361438064966e-01
4.262563650758349199e-01
-8.531996780670700331e-02
-9.815084090419071150e-02
-7.656365466741700543e-02
-9.391841478695842071e-02
4.018126456053089934e-01
-1.010454960491923293e-01
-9.394943758225922370e-02
-1.964572098960851998e-01
-1.484862124644969195e-01
9.102090119691813586e-01
-1.815944895969734407e-01
-8.178500967265774080e-02
8.390516983100301807e-02
8.162177239992768341e-02
-8.265686703628319365e-02
3.056720349662685535e-02
-3.057447512235961229e-01
-1.391590266716625779e-01
-1.437917292671817282e-01
-1.355699217788708388e-01
2.659547910058029235e-02
-3.067473077335196585e-01
-3.124651102144830328e-01
-1.198134095582127912e-01
5.423366978057611032e-01
-2.910060242967835720e-01
-2.967366230561486740e-01
-8.428746868129802228e-02
-8.728506432091721889e-02
-8.736305065208103959e-02
-9.196699592370741194e-02
-8.411596620160391446e-02
4.169782489937585157e-01
-8.308825324667466761e-02
-2.486880169895117898e-01
