-2.757370977971506602e-03
-4.548072100689350096e-04
-1.311558320698895386e-03
6.838754607973298119e-05
4.993580799601613496e-01
9.041226952732723740e-04
-5.426324149293840693e-04
-4.857798339977346816e-04
9.806854370559389862e-04
5.024914811413421223e-01
1.042430147113121387e-03
1.064983784572836635e-03
-2.108093564297049583e-04
-2.560141719517900925e-04
9.984778773218415671e-01
-2.814657182364555671e-03
1.666536659026447154e-01
3.332984796325050847e-01
3.332978352039458469e-01
1.667505516992055237e-01
2.052663277911957046e-03
-2.797613229172624355e-04
5.133962229633126911e-04
-1.559789621730775977e-04
5.012746072959948229e-01
-2.883206744981981840e-04
7.775632902351951392e-04
1.545007710295978219e-03
-5.257324855744458869e-04
4.975341816308707643e-01
-1.421417960506959465e-03
-1.048849514124346313e-03
-3.744453549721332816e-04
-3.367265136038915955e-04
1.000417436203595800e+00
2.157450385619642547e-03
1.666712221574079278e-01
3.333700354514057551e-01
3.334053243548558143e-01
1.665539255118700379e-01
