-1.596921897099536428e-03
-1.358568151954674260e-04
-4.681197086901975855e-04
7.434639697083891960e-04
4.996820041425331094e-01
3.073296823321530844e-04
-3.307863287689822131e-04
-1.668110983984340127e-04
4.248734804325937555e-04
5.010008177738491941e-01
3.594563638637704624e-04
4.744818377483820174e-04
4.751143542083737371e-04
-9.834608547839490732e-05
9.993400674194305999e-01
-1.633440766990317938e-03
1.666299381706174421e-01
3.333383936724031438e-01
3.332651391276648667e-01
1.667669699548103013e-01
1.012510699727419555e-03
-3.959467725273585915e-04
5.131377179686644370e-04
3.261300150590324678e-04
5.009378182005176372e-01
-5.063062243381744347e-04
7.254876572732875829e-04
9.972459302937137105e-04
-3.969501050947149123e-04
4.980194132695798248e-01
-7.547860178412073729e-04
-6.325346716684909255e-04
2.218430603296455458e-04
-3.847150623768144802e-04
1.000455234557858786e+00
1.069320208178901324e-03
1.666423656344214743e-01
3.334010492989671892e-01
3.333529745658038723e-01
1.666038484709439493e-01
