-2.416624465947920467e-03
-2.709532467446243778e-03
-2.846282936311547718e-03
1.994595866514234058e-04
2.097919594344736793e-01
3.347153730741947442e-01
-4.035726763815639107e-02
3.100463145219250604e-03
1.624604175001898576e-01
6.615572648411524037e-01
1.609728247701526782e-01
-2.162136847796091409e-03
-2.146372997252761483e-01
-3.043818954891670536e-01
-3.766098626219110401e-01
-1.417209972978165367e-01
1.659599753590300653e-01
6.663855616872873533e-01
1.666796551093738810e-01
9.798127655873435649e-04
1.667223484406721856e-01
-1.673244579410895216e-01
-1.398163492256881968e-03
1.217358253155748516e-03
1.681805573899924078e-01
3.344941135520252962e-01
1.167607950140412071e-03
2.052195573239405744e-03
1.613979703967745039e-01
8.285029811755502127e-01
-3.829461154507892307e-03
-5.053925896272570828e-03
-1.125194100551300119e-01
-1.481501369146331071e-01
-1.822175027653593349e-01
-7.925861156812329111e-02
1.661695657174452889e-01
6.664438602624584984e-01
1.667640545562749932e-01
6.200149330454508010e-04
