-1.023332060280538469e-01
-1.066699730629170062e-01
-1.095582678266995985e-01
-1.023634446742357346e-01
4.262563983673068324e-01
-8.531995048763395262e-02
-9.815077074088657261e-02
-7.656360193463437880e-02
-9.391842011667381196e-02
4.018126434611672404e-01
-1.010455087326811163e-01
-9.394944678936725801e-02
-1.964572331444070508e-01
-1.484862261881610135e-01
9.102089667332987633e-01
-1.815945244386362734e-01
-8.183125212246805669e-02
8.385975869305410668e-02
8.157359260602543849e-02
-8.270413440844728847e-02
3.056765711397840118e-02
-3.057442940983500779e-01
-1.391585698613086453e-01
-1.437912708576527809e-01
-1.355703359233008387e-01
2.659506131695973941e-02
-3.067477251906556845e-01
-3.124655293295668379e-01
-1.198138636009849767e-01
5.423362402651850100e-01
-2.910064815233601720e-01
-2.967370818773237828e-01
-8.428705887924564655e-02
-8.728465093294157651e-02
-8.736263758580843641e-02
-9.196658122373203847e-02
-8.416281309596411464e-02
4.169314513091120222e-01
-8.313507558515902118e-02
-2.487347066815980556e-01
